#pragma once
#include <cstdarg>
namespace Eloquent {
    namespace ML {
        namespace Port {
            class RandomForestRegressor {
                public:
                    /**
                    * Predict class for features vector
                    */
                    float predict(float *x) {
                        float y_pred = 0;
                        // tree #1
                        if (x[2] <= 1136.5) {
                            if (x[0] <= 3072.5) {
                                if (x[0] <= 2625.0) {
                                    if (x[1] <= 919.0) {
                                        if (x[1] <= 905.5) {
                                            if (x[0] <= 2592.5) {
                                                if (x[1] <= 898.0) {
                                                    if (x[2] <= 583.0) {
                                                        if (x[2] <= 564.0) {
                                                            if (x[0] <= 1676.5) {
                                                                y_pred += 227.0;
                                                            }

                                                            else {
                                                                y_pred += 167.0;
                                                            }
                                                        }

                                                        else {
                                                            y_pred += 138.0;
                                                        }
                                                    }

                                                    else {
                                                        if (x[1] <= 862.0) {
                                                            if (x[0] <= 2307.5) {
                                                                if (x[0] <= 2266.0) {
                                                                    if (x[1] <= 849.5) {
                                                                        if (x[2] <= 615.5) {
                                                                            y_pred += 201.0;
                                                                        }

                                                                        else {
                                                                            y_pred += 198.0;
                                                                        }
                                                                    }

                                                                    else {
                                                                        y_pred += 226.0;
                                                                    }
                                                                }

                                                                else {
                                                                    y_pred += 180.0;
                                                                }
                                                            }

                                                            else {
                                                                if (x[1] <= 846.0) {
                                                                    if (x[0] <= 2517.5) {
                                                                        if (x[1] <= 791.5) {
                                                                            y_pred += 223.0;
                                                                        }

                                                                        else {
                                                                            y_pred += 230.0;
                                                                        }
                                                                    }

                                                                    else {
                                                                        if (x[1] <= 768.5) {
                                                                            y_pred += 198.0;
                                                                        }

                                                                        else {
                                                                            y_pred += 225.0;
                                                                        }
                                                                    }
                                                                }

                                                                else {
                                                                    y_pred += 178.0;
                                                                }
                                                            }
                                                        }

                                                        else {
                                                            if (x[1] <= 889.0) {
                                                                if (x[2] <= 818.0) {
                                                                    if (x[1] <= 883.5) {
                                                                        if (x[1] <= 872.5) {
                                                                            y_pred += 192.0;
                                                                        }

                                                                        else {
                                                                            y_pred += 194.0;
                                                                        }
                                                                    }

                                                                    else {
                                                                        y_pred += 177.0;
                                                                    }
                                                                }

                                                                else {
                                                                    y_pred += 164.0;
                                                                }
                                                            }

                                                            else {
                                                                if (x[2] <= 677.0) {
                                                                    y_pred += 233.0;
                                                                }

                                                                else {
                                                                    y_pred += 175.0;
                                                                }
                                                            }
                                                        }
                                                    }
                                                }

                                                else {
                                                    y_pred += 151.0;
                                                }
                                            }

                                            else {
                                                y_pred += 155.0;
                                            }
                                        }

                                        else {
                                            if (x[1] <= 908.5) {
                                                y_pred += 228.0;
                                            }

                                            else {
                                                if (x[1] <= 912.5) {
                                                    y_pred += 208.0;
                                                }

                                                else {
                                                    y_pred += 218.0;
                                                }
                                            }
                                        }
                                    }

                                    else {
                                        if (x[2] <= 883.5) {
                                            if (x[0] <= 2563.0) {
                                                if (x[2] <= 814.0) {
                                                    if (x[2] <= 672.0) {
                                                        if (x[2] <= 558.0) {
                                                            y_pred += 121.0;
                                                        }

                                                        else {
                                                            if (x[0] <= 1958.5) {
                                                                if (x[1] <= 1239.0) {
                                                                    y_pred += 234.0;
                                                                }

                                                                else {
                                                                    y_pred += 176.0;
                                                                }
                                                            }

                                                            else {
                                                                if (x[1] <= 1326.5) {
                                                                    if (x[0] <= 2049.0) {
                                                                        y_pred += 138.0;
                                                                    }

                                                                    else {
                                                                        if (x[2] <= 642.0) {
                                                                            if (x[1] <= 1160.5) {
                                                                                y_pred += 173.0;
                                                                            }

                                                                            else {
                                                                                y_pred += 157.0;
                                                                            }
                                                                        }

                                                                        else {
                                                                            y_pred += 202.0;
                                                                        }
                                                                    }
                                                                }

                                                                else {
                                                                    if (x[2] <= 634.0) {
                                                                        y_pred += 211.0;
                                                                    }

                                                                    else {
                                                                        y_pred += 210.0;
                                                                    }
                                                                }
                                                            }
                                                        }
                                                    }

                                                    else {
                                                        if (x[2] <= 729.0) {
                                                            if (x[0] <= 1977.5) {
                                                                if (x[1] <= 1098.5) {
                                                                    y_pred += 132.0;
                                                                }

                                                                else {
                                                                    y_pred += 123.0;
                                                                }
                                                            }

                                                            else {
                                                                if (x[0] <= 2380.0) {
                                                                    if (x[1] <= 1055.5) {
                                                                        if (x[1] <= 981.0) {
                                                                            y_pred += 152.0;
                                                                        }

                                                                        else {
                                                                            y_pred += 139.0;
                                                                        }
                                                                    }

                                                                    else {
                                                                        y_pred += 162.0;
                                                                    }
                                                                }

                                                                else {
                                                                    y_pred += 131.0;
                                                                }
                                                            }
                                                        }

                                                        else {
                                                            if (x[1] <= 1931.0) {
                                                                if (x[0] <= 2018.5) {
                                                                    if (x[0] <= 1887.5) {
                                                                        if (x[2] <= 780.0) {
                                                                            if (x[1] <= 1121.0) {
                                                                                y_pred += 154.0;
                                                                            }

                                                                            else {
                                                                                y_pred += 169.0;
                                                                            }
                                                                        }

                                                                        else {
                                                                            if (x[0] <= 1759.5) {
                                                                                y_pred += 216.0;
                                                                            }

                                                                            else {
                                                                                if (x[0] <= 1880.5) {
                                                                                    y_pred += 158.0;
                                                                                }

                                                                                else {
                                                                                    y_pred += 170.0;
                                                                                }
                                                                            }
                                                                        }
                                                                    }

                                                                    else {
                                                                        y_pred += 233.0;
                                                                    }
                                                                }

                                                                else {
                                                                    if (x[2] <= 776.0) {
                                                                        if (x[0] <= 2270.5) {
                                                                            if (x[0] <= 2186.0) {
                                                                                y_pred += 122.0;
                                                                            }

                                                                            else {
                                                                                y_pred += 132.0;
                                                                            }
                                                                        }

                                                                        else {
                                                                            y_pred += 146.0;
                                                                        }
                                                                    }

                                                                    else {
                                                                        if (x[1] <= 1202.0) {
                                                                            y_pred += 155.0;
                                                                        }

                                                                        else {
                                                                            if (x[2] <= 797.0) {
                                                                                y_pred += 153.0;
                                                                            }

                                                                            else {
                                                                                y_pred += 136.0;
                                                                            }
                                                                        }
                                                                    }
                                                                }
                                                            }

                                                            else {
                                                                y_pred += 220.0;
                                                            }
                                                        }
                                                    }
                                                }

                                                else {
                                                    if (x[2] <= 870.0) {
                                                        if (x[0] <= 2369.0) {
                                                            if (x[2] <= 856.5) {
                                                                if (x[2] <= 824.0) {
                                                                    if (x[1] <= 1056.5) {
                                                                        y_pred += 152.0;
                                                                    }

                                                                    else {
                                                                        y_pred += 187.0;
                                                                    }
                                                                }

                                                                else {
                                                                    if (x[2] <= 840.0) {
                                                                        y_pred += 215.0;
                                                                    }

                                                                    else {
                                                                        y_pred += 206.0;
                                                                    }
                                                                }
                                                            }

                                                            else {
                                                                if (x[1] <= 970.5) {
                                                                    y_pred += 124.0;
                                                                }

                                                                else {
                                                                    if (x[2] <= 864.0) {
                                                                        y_pred += 147.0;
                                                                    }

                                                                    else {
                                                                        y_pred += 168.0;
                                                                    }
                                                                }
                                                            }
                                                        }

                                                        else {
                                                            if (x[2] <= 840.5) {
                                                                if (x[1] <= 1266.0) {
                                                                    if (x[1] <= 1177.0) {
                                                                        y_pred += 217.0;
                                                                    }

                                                                    else {
                                                                        y_pred += 205.0;
                                                                    }
                                                                }

                                                                else {
                                                                    y_pred += 163.0;
                                                                }
                                                            }

                                                            else {
                                                                y_pred += 229.0;
                                                            }
                                                        }
                                                    }

                                                    else {
                                                        if (x[2] <= 880.5) {
                                                            if (x[0] <= 2255.0) {
                                                                y_pred += 225.0;
                                                            }

                                                            else {
                                                                y_pred += 236.0;
                                                            }
                                                        }

                                                        else {
                                                            if (x[2] <= 882.5) {
                                                                y_pred += 169.0;
                                                            }

                                                            else {
                                                                y_pred += 240.0;
                                                            }
                                                        }
                                                    }
                                                }
                                            }

                                            else {
                                                if (x[0] <= 2600.0) {
                                                    if (x[0] <= 2572.5) {
                                                        y_pred += 146.0;
                                                    }

                                                    else {
                                                        if (x[0] <= 2575.0) {
                                                            y_pred += 105.0;
                                                        }

                                                        else {
                                                            if (x[2] <= 803.0) {
                                                                y_pred += 129.0;
                                                            }

                                                            else {
                                                                y_pred += 108.0;
                                                            }
                                                        }
                                                    }
                                                }

                                                else {
                                                    if (x[2] <= 786.5) {
                                                        if (x[0] <= 2605.0) {
                                                            y_pred += 153.0;
                                                        }

                                                        else {
                                                            y_pred += 192.0;
                                                        }
                                                    }

                                                    else {
                                                        y_pred += 126.0;
                                                    }
                                                }
                                            }
                                        }

                                        else {
                                            if (x[2] <= 1007.5) {
                                                if (x[0] <= 2558.5) {
                                                    if (x[0] <= 1918.0) {
                                                        y_pred += 149.0;
                                                    }

                                                    else {
                                                        if (x[2] <= 960.0) {
                                                            if (x[0] <= 2446.0) {
                                                                if (x[0] <= 2066.0) {
                                                                    y_pred += 113.0;
                                                                }

                                                                else {
                                                                    if (x[0] <= 2271.5) {
                                                                        y_pred += 123.0;
                                                                    }

                                                                    else {
                                                                        y_pred += 118.0;
                                                                    }
                                                                }
                                                            }

                                                            else {
                                                                if (x[0] <= 2535.5) {
                                                                    y_pred += 137.0;
                                                                }

                                                                else {
                                                                    y_pred += 136.0;
                                                                }
                                                            }
                                                        }

                                                        else {
                                                            y_pred += 145.0;
                                                        }
                                                    }
                                                }

                                                else {
                                                    if (x[0] <= 2591.0) {
                                                        y_pred += 178.0;
                                                    }

                                                    else {
                                                        y_pred += 140.0;
                                                    }
                                                }
                                            }

                                            else {
                                                if (x[1] <= 1817.5) {
                                                    if (x[2] <= 1046.5) {
                                                        if (x[1] <= 1338.5) {
                                                            if (x[0] <= 2281.0) {
                                                                if (x[1] <= 1183.5) {
                                                                    y_pred += 180.0;
                                                                }

                                                                else {
                                                                    y_pred += 128.0;
                                                                }
                                                            }

                                                            else {
                                                                y_pred += 183.0;
                                                            }
                                                        }

                                                        else {
                                                            if (x[0] <= 2017.5) {
                                                                y_pred += 222.0;
                                                            }

                                                            else {
                                                                y_pred += 171.0;
                                                            }
                                                        }
                                                    }

                                                    else {
                                                        if (x[2] <= 1076.0) {
                                                            y_pred += 131.0;
                                                        }

                                                        else {
                                                            if (x[2] <= 1110.0) {
                                                                y_pred += 185.0;
                                                            }

                                                            else {
                                                                y_pred += 150.0;
                                                            }
                                                        }
                                                    }
                                                }

                                                else {
                                                    y_pred += 110.0;
                                                }
                                            }
                                        }
                                    }
                                }

                                else {
                                    if (x[1] <= 1272.5) {
                                        if (x[1] <= 785.0) {
                                            y_pred += 232.0;
                                        }

                                        else {
                                            if (x[2] <= 774.5) {
                                                if (x[0] <= 2670.5) {
                                                    y_pred += 215.0;
                                                }

                                                else {
                                                    if (x[2] <= 646.5) {
                                                        if (x[2] <= 593.0) {
                                                            y_pred += 143.0;
                                                        }

                                                        else {
                                                            if (x[2] <= 607.5) {
                                                                y_pred += 164.0;
                                                            }

                                                            else {
                                                                y_pred += 151.0;
                                                            }
                                                        }
                                                    }

                                                    else {
                                                        if (x[1] <= 923.5) {
                                                            y_pred += 102.0;
                                                        }

                                                        else {
                                                            y_pred += 115.0;
                                                        }
                                                    }
                                                }
                                            }

                                            else {
                                                if (x[0] <= 2740.5) {
                                                    if (x[0] <= 2691.5) {
                                                        y_pred += 172.0;
                                                    }

                                                    else {
                                                        y_pred += 135.0;
                                                    }
                                                }

                                                else {
                                                    if (x[0] <= 2922.0) {
                                                        if (x[2] <= 870.5) {
                                                            if (x[2] <= 806.5) {
                                                                y_pred += 197.0;
                                                            }

                                                            else {
                                                                y_pred += 237.0;
                                                            }
                                                        }

                                                        else {
                                                            if (x[0] <= 2814.0) {
                                                                y_pred += 204.0;
                                                            }

                                                            else {
                                                                y_pred += 167.0;
                                                            }
                                                        }
                                                    }

                                                    else {
                                                        if (x[2] <= 862.0) {
                                                            if (x[2] <= 807.0) {
                                                                y_pred += 181.0;
                                                            }

                                                            else {
                                                                y_pred += 177.0;
                                                            }
                                                        }

                                                        else {
                                                            y_pred += 165.0;
                                                        }
                                                    }
                                                }
                                            }
                                        }
                                    }

                                    else {
                                        if (x[0] <= 2882.5) {
                                            if (x[2] <= 785.0) {
                                                y_pred += 239.0;
                                            }

                                            else {
                                                if (x[0] <= 2639.5) {
                                                    y_pred += 226.0;
                                                }

                                                else {
                                                    if (x[2] <= 826.0) {
                                                        y_pred += 210.0;
                                                    }

                                                    else {
                                                        if (x[0] <= 2824.0) {
                                                            if (x[0] <= 2730.5) {
                                                                if (x[2] <= 886.5) {
                                                                    y_pred += 216.0;
                                                                }

                                                                else {
                                                                    y_pred += 213.0;
                                                                }
                                                            }

                                                            else {
                                                                if (x[2] <= 1058.0) {
                                                                    if (x[2] <= 950.0) {
                                                                        y_pred += 220.0;
                                                                    }

                                                                    else {
                                                                        y_pred += 223.0;
                                                                    }
                                                                }

                                                                else {
                                                                    y_pred += 217.0;
                                                                }
                                                            }
                                                        }

                                                        else {
                                                            y_pred += 211.0;
                                                        }
                                                    }
                                                }
                                            }
                                        }

                                        else {
                                            if (x[0] <= 3026.0) {
                                                if (x[0] <= 3012.5) {
                                                    if (x[2] <= 896.5) {
                                                        y_pred += 235.0;
                                                    }

                                                    else {
                                                        if (x[2] <= 1113.0) {
                                                            if (x[1] <= 1415.5) {
                                                                y_pred += 174.0;
                                                            }

                                                            else {
                                                                y_pred += 176.0;
                                                            }
                                                        }

                                                        else {
                                                            y_pred += 126.0;
                                                        }
                                                    }
                                                }

                                                else {
                                                    y_pred += 110.0;
                                                }
                                            }

                                            else {
                                                y_pred += 239.0;
                                            }
                                        }
                                    }
                                }
                            }

                            else {
                                if (x[1] <= 1318.5) {
                                    if (x[2] <= 550.0) {
                                        y_pred += 161.0;
                                    }

                                    else {
                                        if (x[2] <= 701.0) {
                                            y_pred += 114.0;
                                        }

                                        else {
                                            if (x[0] <= 3158.0) {
                                                if (x[0] <= 3135.5) {
                                                    y_pred += 139.0;
                                                }

                                                else {
                                                    y_pred += 134.0;
                                                }
                                            }

                                            else {
                                                y_pred += 162.0;
                                            }
                                        }
                                    }
                                }

                                else {
                                    if (x[1] <= 1674.0) {
                                        if (x[0] <= 3338.0) {
                                            y_pred += 213.0;
                                        }

                                        else {
                                            y_pred += 186.0;
                                        }
                                    }

                                    else {
                                        if (x[0] <= 3560.5) {
                                            y_pred += 190.0;
                                        }

                                        else {
                                            y_pred += 116.0;
                                        }
                                    }
                                }
                            }
                        }

                        else {
                            if (x[0] <= 2479.5) {
                                if (x[0] <= 2388.0) {
                                    if (x[0] <= 1122.5) {
                                        y_pred += 116.0;
                                    }

                                    else {
                                        if (x[0] <= 1574.0) {
                                            y_pred += 238.0;
                                        }

                                        else {
                                            if (x[0] <= 1903.5) {
                                                if (x[2] <= 2313.0) {
                                                    if (x[0] <= 1784.0) {
                                                        y_pred += 113.0;
                                                    }

                                                    else {
                                                        y_pred += 129.0;
                                                    }
                                                }

                                                else {
                                                    y_pred += 196.0;
                                                }
                                            }

                                            else {
                                                if (x[1] <= 1977.5) {
                                                    if (x[0] <= 2127.0) {
                                                        if (x[1] <= 1379.5) {
                                                            y_pred += 219.0;
                                                        }

                                                        else {
                                                            y_pred += 204.0;
                                                        }
                                                    }

                                                    else {
                                                        if (x[0] <= 2337.0) {
                                                            if (x[2] <= 1251.0) {
                                                                y_pred += 235.0;
                                                            }

                                                            else {
                                                                if (x[1] <= 1709.0) {
                                                                    if (x[2] <= 1675.0) {
                                                                        if (x[1] <= 1578.0) {
                                                                            y_pred += 179.0;
                                                                        }

                                                                        else {
                                                                            y_pred += 160.0;
                                                                        }
                                                                    }

                                                                    else {
                                                                        y_pred += 130.0;
                                                                    }
                                                                }

                                                                else {
                                                                    y_pred += 191.0;
                                                                }
                                                            }
                                                        }

                                                        else {
                                                            if (x[0] <= 2365.5) {
                                                                y_pred += 224.0;
                                                            }

                                                            else {
                                                                y_pred += 174.0;
                                                            }
                                                        }
                                                    }
                                                }

                                                else {
                                                    if (x[0] <= 2316.0) {
                                                        if (x[0] <= 2258.5) {
                                                            y_pred += 156.0;
                                                        }

                                                        else {
                                                            y_pred += 141.0;
                                                        }
                                                    }

                                                    else {
                                                        y_pred += 158.0;
                                                    }
                                                }
                                            }
                                        }
                                    }
                                }

                                else {
                                    if (x[2] <= 1239.0) {
                                        y_pred += 144.0;
                                    }

                                    else {
                                        if (x[1] <= 1604.5) {
                                            if (x[2] <= 1353.5) {
                                                y_pred += 134.0;
                                            }

                                            else {
                                                y_pred += 130.0;
                                            }
                                        }

                                        else {
                                            y_pred += 124.0;
                                        }
                                    }
                                }
                            }

                            else {
                                if (x[2] <= 1736.0) {
                                    if (x[1] <= 1911.0) {
                                        if (x[0] <= 2943.0) {
                                            if (x[0] <= 2783.5) {
                                                if (x[2] <= 1469.5) {
                                                    if (x[0] <= 2610.5) {
                                                        y_pred += 212.0;
                                                    }

                                                    else {
                                                        y_pred += 229.0;
                                                    }
                                                }

                                                else {
                                                    y_pred += 203.0;
                                                }
                                            }

                                            else {
                                                if (x[1] <= 1712.0) {
                                                    if (x[2] <= 1230.5) {
                                                        y_pred += 206.0;
                                                    }

                                                    else {
                                                        if (x[1] <= 1673.5) {
                                                            y_pred += 184.0;
                                                        }

                                                        else {
                                                            y_pred += 197.0;
                                                        }
                                                    }
                                                }

                                                else {
                                                    if (x[0] <= 2852.5) {
                                                        if (x[1] <= 1774.0) {
                                                            y_pred += 149.0;
                                                        }

                                                        else {
                                                            if (x[1] <= 1862.0) {
                                                                y_pred += 184.0;
                                                            }

                                                            else {
                                                                y_pred += 157.0;
                                                            }
                                                        }
                                                    }

                                                    else {
                                                        if (x[0] <= 2900.5) {
                                                            y_pred += 118.0;
                                                        }

                                                        else {
                                                            y_pred += 106.0;
                                                        }
                                                    }
                                                }
                                            }
                                        }

                                        else {
                                            if (x[0] <= 3376.5) {
                                                if (x[0] <= 3142.5) {
                                                    if (x[1] <= 1484.0) {
                                                        y_pred += 237.0;
                                                    }

                                                    else {
                                                        if (x[2] <= 1222.0) {
                                                            y_pred += 200.0;
                                                        }

                                                        else {
                                                            if (x[0] <= 3111.0) {
                                                                y_pred += 194.0;
                                                            }

                                                            else {
                                                                y_pred += 171.0;
                                                            }
                                                        }
                                                    }
                                                }

                                                else {
                                                    if (x[2] <= 1296.5) {
                                                        if (x[1] <= 1739.0) {
                                                            y_pred += 218.0;
                                                        }

                                                        else {
                                                            y_pred += 221.0;
                                                        }
                                                    }

                                                    else {
                                                        y_pred += 230.0;
                                                    }
                                                }
                                            }

                                            else {
                                                if (x[0] <= 3522.0) {
                                                    y_pred += 137.0;
                                                }

                                                else {
                                                    if (x[2] <= 1350.5) {
                                                        y_pred += 212.0;
                                                    }

                                                    else {
                                                        y_pred += 193.0;
                                                    }
                                                }
                                            }
                                        }
                                    }

                                    else {
                                        if (x[1] <= 1940.5) {
                                            if (x[2] <= 1357.5) {
                                                y_pred += 240.0;
                                            }

                                            else {
                                                y_pred += 228.0;
                                            }
                                        }

                                        else {
                                            if (x[0] <= 2738.5) {
                                                if (x[2] <= 1599.0) {
                                                    if (x[2] <= 1485.0) {
                                                        y_pred += 190.0;
                                                    }

                                                    else {
                                                        y_pred += 179.0;
                                                    }
                                                }

                                                else {
                                                    if (x[1] <= 2131.5) {
                                                        y_pred += 196.0;
                                                    }

                                                    else {
                                                        y_pred += 231.0;
                                                    }
                                                }
                                            }

                                            else {
                                                if (x[2] <= 1377.0) {
                                                    y_pred += 222.0;
                                                }

                                                else {
                                                    if (x[1] <= 2128.5) {
                                                        y_pred += 224.0;
                                                    }

                                                    else {
                                                        if (x[0] <= 3579.5) {
                                                            y_pred += 227.0;
                                                        }

                                                        else {
                                                            y_pred += 236.0;
                                                        }
                                                    }
                                                }
                                            }
                                        }
                                    }
                                }

                                else {
                                    if (x[1] <= 2342.0) {
                                        if (x[0] <= 3060.0) {
                                            y_pred += 234.0;
                                        }

                                        else {
                                            y_pred += 165.0;
                                        }
                                    }

                                    else {
                                        if (x[0] <= 3183.0) {
                                            if (x[2] <= 3153.0) {
                                                if (x[2] <= 1816.0) {
                                                    if (x[0] <= 2729.0) {
                                                        y_pred += 186.0;
                                                    }

                                                    else {
                                                        y_pred += 172.0;
                                                    }
                                                }

                                                else {
                                                    if (x[0] <= 3122.0) {
                                                        y_pred += 203.0;
                                                    }

                                                    else {
                                                        y_pred += 214.0;
                                                    }
                                                }
                                            }

                                            else {
                                                if (x[0] <= 2746.0) {
                                                    y_pred += 166.0;
                                                }

                                                else {
                                                    y_pred += 128.0;
                                                }
                                            }
                                        }

                                        else {
                                            if (x[0] <= 3313.5) {
                                                y_pred += 115.0;
                                            }

                                            else {
                                                if (x[1] <= 2423.0) {
                                                    y_pred += 145.0;
                                                }

                                                else {
                                                    y_pred += 161.0;
                                                }
                                            }
                                        }
                                    }
                                }
                            }
                        }

                        // tree #2
                        if (x[0] <= 2625.0) {
                            if (x[2] <= 883.5) {
                                if (x[1] <= 919.0) {
                                    if (x[1] <= 905.5) {
                                        if (x[2] <= 757.5) {
                                            if (x[0] <= 2307.5) {
                                                if (x[1] <= 705.5) {
                                                    if (x[0] <= 1490.5) {
                                                        y_pred += 227.0;
                                                    }

                                                    else {
                                                        y_pred += 198.0;
                                                    }
                                                }

                                                else {
                                                    if (x[1] <= 784.5) {
                                                        if (x[0] <= 1905.5) {
                                                            y_pred += 138.0;
                                                        }

                                                        else {
                                                            y_pred += 167.0;
                                                        }
                                                    }

                                                    else {
                                                        if (x[2] <= 654.5) {
                                                            if (x[2] <= 621.5) {
                                                                if (x[0] <= 2266.0) {
                                                                    y_pred += 201.0;
                                                                }

                                                                else {
                                                                    y_pred += 180.0;
                                                                }
                                                            }

                                                            else {
                                                                y_pred += 151.0;
                                                            }
                                                        }

                                                        else {
                                                            if (x[2] <= 677.0) {
                                                                y_pred += 233.0;
                                                            }

                                                            else {
                                                                if (x[1] <= 889.0) {
                                                                    y_pred += 177.0;
                                                                }

                                                                else {
                                                                    y_pred += 175.0;
                                                                }
                                                            }
                                                        }
                                                    }
                                                }
                                            }

                                            else {
                                                if (x[1] <= 846.0) {
                                                    if (x[2] <= 660.0) {
                                                        if (x[0] <= 2517.5) {
                                                            y_pred += 223.0;
                                                        }

                                                        else {
                                                            y_pred += 198.0;
                                                        }
                                                    }

                                                    else {
                                                        if (x[2] <= 679.5) {
                                                            y_pred += 230.0;
                                                        }

                                                        else {
                                                            y_pred += 225.0;
                                                        }
                                                    }
                                                }

                                                else {
                                                    if (x[2] <= 736.0) {
                                                        if (x[1] <= 856.0) {
                                                            y_pred += 178.0;
                                                        }

                                                        else {
                                                            if (x[0] <= 2447.0) {
                                                                y_pred += 192.0;
                                                            }

                                                            else {
                                                                y_pred += 194.0;
                                                            }
                                                        }
                                                    }

                                                    else {
                                                        y_pred += 155.0;
                                                    }
                                                }
                                            }
                                        }

                                        else {
                                            y_pred += 226.0;
                                        }
                                    }

                                    else {
                                        if (x[2] <= 860.0) {
                                            if (x[2] <= 816.5) {
                                                y_pred += 208.0;
                                            }

                                            else {
                                                y_pred += 218.0;
                                            }
                                        }

                                        else {
                                            y_pred += 228.0;
                                        }
                                    }
                                }

                                else {
                                    if (x[0] <= 2563.0) {
                                        if (x[2] <= 814.0) {
                                            if (x[1] <= 1353.0) {
                                                if (x[0] <= 1927.0) {
                                                    if (x[0] <= 1887.5) {
                                                        if (x[2] <= 780.0) {
                                                            if (x[1] <= 1139.5) {
                                                                if (x[0] <= 1669.5) {
                                                                    y_pred += 132.0;
                                                                }

                                                                else {
                                                                    y_pred += 154.0;
                                                                }
                                                            }

                                                            else {
                                                                if (x[0] <= 1739.5) {
                                                                    y_pred += 176.0;
                                                                }

                                                                else {
                                                                    y_pred += 169.0;
                                                                }
                                                            }
                                                        }

                                                        else {
                                                            if (x[0] <= 1762.0) {
                                                                y_pred += 216.0;
                                                            }

                                                            else {
                                                                y_pred += 170.0;
                                                            }
                                                        }
                                                    }

                                                    else {
                                                        if (x[0] <= 1893.0) {
                                                            y_pred += 233.0;
                                                        }

                                                        else {
                                                            y_pred += 234.0;
                                                        }
                                                    }
                                                }

                                                else {
                                                    if (x[2] <= 684.5) {
                                                        if (x[2] <= 558.0) {
                                                            y_pred += 121.0;
                                                        }

                                                        else {
                                                            if (x[1] <= 944.5) {
                                                                y_pred += 202.0;
                                                            }

                                                            else {
                                                                if (x[1] <= 1014.5) {
                                                                    if (x[2] <= 659.0) {
                                                                        y_pred += 138.0;
                                                                    }

                                                                    else {
                                                                        y_pred += 152.0;
                                                                    }
                                                                }

                                                                else {
                                                                    if (x[0] <= 2223.0) {
                                                                        y_pred += 173.0;
                                                                    }

                                                                    else {
                                                                        y_pred += 157.0;
                                                                    }
                                                                }
                                                            }
                                                        }
                                                    }

                                                    else {
                                                        if (x[0] <= 2177.5) {
                                                            if (x[1] <= 1060.5) {
                                                                y_pred += 139.0;
                                                            }

                                                            else {
                                                                if (x[0] <= 2052.5) {
                                                                    y_pred += 123.0;
                                                                }

                                                                else {
                                                                    y_pred += 122.0;
                                                                }
                                                            }
                                                        }

                                                        else {
                                                            if (x[2] <= 705.5) {
                                                                y_pred += 131.0;
                                                            }

                                                            else {
                                                                if (x[2] <= 735.0) {
                                                                    y_pred += 162.0;
                                                                }

                                                                else {
                                                                    if (x[0] <= 2270.5) {
                                                                        y_pred += 132.0;
                                                                    }

                                                                    else {
                                                                        if (x[2] <= 788.0) {
                                                                            if (x[2] <= 771.5) {
                                                                                y_pred += 146.0;
                                                                            }

                                                                            else {
                                                                                y_pred += 155.0;
                                                                            }
                                                                        }

                                                                        else {
                                                                            y_pred += 136.0;
                                                                        }
                                                                    }
                                                                }
                                                            }
                                                        }
                                                    }
                                                }
                                            }

                                            else {
                                                if (x[1] <= 1484.5) {
                                                    if (x[1] <= 1429.5) {
                                                        y_pred += 210.0;
                                                    }

                                                    else {
                                                        y_pred += 211.0;
                                                    }
                                                }

                                                else {
                                                    if (x[2] <= 768.0) {
                                                        y_pred += 220.0;
                                                    }

                                                    else {
                                                        if (x[0] <= 2097.0) {
                                                            y_pred += 158.0;
                                                        }

                                                        else {
                                                            y_pred += 153.0;
                                                        }
                                                    }
                                                }
                                            }
                                        }

                                        else {
                                            if (x[0] <= 2369.0) {
                                                if (x[2] <= 870.0) {
                                                    if (x[2] <= 856.5) {
                                                        if (x[2] <= 824.0) {
                                                            if (x[2] <= 819.5) {
                                                                y_pred += 187.0;
                                                            }

                                                            else {
                                                                y_pred += 152.0;
                                                            }
                                                        }

                                                        else {
                                                            if (x[1] <= 1176.5) {
                                                                y_pred += 215.0;
                                                            }

                                                            else {
                                                                y_pred += 206.0;
                                                            }
                                                        }
                                                    }

                                                    else {
                                                        if (x[2] <= 860.5) {
                                                            y_pred += 124.0;
                                                        }

                                                        else {
                                                            if (x[0] <= 2245.5) {
                                                                y_pred += 168.0;
                                                            }

                                                            else {
                                                                y_pred += 147.0;
                                                            }
                                                        }
                                                    }
                                                }

                                                else {
                                                    if (x[0] <= 1804.5) {
                                                        y_pred += 169.0;
                                                    }

                                                    else {
                                                        y_pred += 225.0;
                                                    }
                                                }
                                            }

                                            else {
                                                if (x[0] <= 2499.0) {
                                                    if (x[0] <= 2438.0) {
                                                        if (x[0] <= 2412.0) {
                                                            y_pred += 217.0;
                                                        }

                                                        else {
                                                            y_pred += 205.0;
                                                        }
                                                    }

                                                    else {
                                                        if (x[2] <= 870.0) {
                                                            y_pred += 229.0;
                                                        }

                                                        else {
                                                            y_pred += 240.0;
                                                        }
                                                    }
                                                }

                                                else {
                                                    if (x[2] <= 851.5) {
                                                        y_pred += 163.0;
                                                    }

                                                    else {
                                                        y_pred += 236.0;
                                                    }
                                                }
                                            }
                                        }
                                    }

                                    else {
                                        if (x[2] <= 723.0) {
                                            if (x[0] <= 2605.0) {
                                                if (x[0] <= 2589.0) {
                                                    if (x[2] <= 659.5) {
                                                        y_pred += 146.0;
                                                    }

                                                    else {
                                                        y_pred += 105.0;
                                                    }
                                                }

                                                else {
                                                    y_pred += 153.0;
                                                }
                                            }

                                            else {
                                                y_pred += 192.0;
                                            }
                                        }

                                        else {
                                            if (x[0] <= 2586.0) {
                                                y_pred += 129.0;
                                            }

                                            else {
                                                if (x[1] <= 1146.5) {
                                                    y_pred += 108.0;
                                                }

                                                else {
                                                    y_pred += 126.0;
                                                }
                                            }
                                        }
                                    }
                                }
                            }

                            else {
                                if (x[0] <= 1700.0) {
                                    if (x[0] <= 1122.5) {
                                        y_pred += 116.0;
                                    }

                                    else {
                                        if (x[2] <= 1029.0) {
                                            y_pred += 180.0;
                                        }

                                        else {
                                            if (x[2] <= 2030.5) {
                                                if (x[1] <= 1201.0) {
                                                    y_pred += 238.0;
                                                }

                                                else {
                                                    y_pred += 222.0;
                                                }
                                            }

                                            else {
                                                y_pred += 196.0;
                                            }
                                        }
                                    }
                                }

                                else {
                                    if (x[2] <= 1134.0) {
                                        if (x[2] <= 1122.5) {
                                            if (x[0] <= 2255.0) {
                                                if (x[0] <= 1918.0) {
                                                    if (x[0] <= 1840.0) {
                                                        y_pred += 131.0;
                                                    }

                                                    else {
                                                        y_pred += 149.0;
                                                    }
                                                }

                                                else {
                                                    if (x[2] <= 972.5) {
                                                        if (x[2] <= 915.5) {
                                                            y_pred += 123.0;
                                                        }

                                                        else {
                                                            y_pred += 113.0;
                                                        }
                                                    }

                                                    else {
                                                        y_pred += 128.0;
                                                    }
                                                }
                                            }

                                            else {
                                                if (x[2] <= 1005.0) {
                                                    if (x[1] <= 1419.5) {
                                                        if (x[2] <= 904.0) {
                                                            if (x[0] <= 2530.0) {
                                                                y_pred += 137.0;
                                                            }

                                                            else {
                                                                y_pred += 164.0;
                                                            }
                                                        }

                                                        else {
                                                            if (x[0] <= 2361.5) {
                                                                y_pred += 145.0;
                                                            }

                                                            else {
                                                                if (x[2] <= 918.0) {
                                                                    if (x[1] <= 1312.0) {
                                                                        y_pred += 140.0;
                                                                    }

                                                                    else {
                                                                        y_pred += 136.0;
                                                                    }
                                                                }

                                                                else {
                                                                    y_pred += 118.0;
                                                                }
                                                            }
                                                        }
                                                    }

                                                    else {
                                                        y_pred += 178.0;
                                                    }
                                                }

                                                else {
                                                    if (x[2] <= 1110.0) {
                                                        if (x[2] <= 1069.5) {
                                                            if (x[1] <= 1347.5) {
                                                                y_pred += 183.0;
                                                            }

                                                            else {
                                                                y_pred += 171.0;
                                                            }
                                                        }

                                                        else {
                                                            y_pred += 185.0;
                                                        }
                                                    }

                                                    else {
                                                        y_pred += 150.0;
                                                    }
                                                }
                                            }
                                        }

                                        else {
                                            y_pred += 110.0;
                                        }
                                    }

                                    else {
                                        if (x[1] <= 1698.5) {
                                            if (x[0] <= 2388.0) {
                                                if (x[1] <= 1648.0) {
                                                    if (x[2] <= 1197.5) {
                                                        y_pred += 219.0;
                                                    }

                                                    else {
                                                        if (x[1] <= 1423.5) {
                                                            y_pred += 129.0;
                                                        }

                                                        else {
                                                            if (x[1] <= 1511.0) {
                                                                if (x[2] <= 1330.0) {
                                                                    y_pred += 235.0;
                                                                }

                                                                else {
                                                                    y_pred += 174.0;
                                                                }
                                                            }

                                                            else {
                                                                if (x[0] <= 2234.5) {
                                                                    y_pred += 160.0;
                                                                }

                                                                else {
                                                                    y_pred += 179.0;
                                                                }
                                                            }
                                                        }
                                                    }
                                                }

                                                else {
                                                    if (x[2] <= 1737.5) {
                                                        y_pred += 113.0;
                                                    }

                                                    else {
                                                        y_pred += 130.0;
                                                    }
                                                }
                                            }

                                            else {
                                                if (x[0] <= 2445.5) {
                                                    if (x[2] <= 1410.0) {
                                                        if (x[1] <= 1570.5) {
                                                            y_pred += 134.0;
                                                        }

                                                        else {
                                                            y_pred += 130.0;
                                                        }
                                                    }

                                                    else {
                                                        y_pred += 124.0;
                                                    }
                                                }

                                                else {
                                                    y_pred += 144.0;
                                                }
                                            }
                                        }

                                        else {
                                            if (x[2] <= 1355.0) {
                                                if (x[0] <= 2450.5) {
                                                    y_pred += 224.0;
                                                }

                                                else {
                                                    y_pred += 212.0;
                                                }
                                            }

                                            else {
                                                if (x[0] <= 2409.5) {
                                                    if (x[0] <= 2191.5) {
                                                        if (x[1] <= 1744.0) {
                                                            y_pred += 204.0;
                                                        }

                                                        else {
                                                            y_pred += 191.0;
                                                        }
                                                    }

                                                    else {
                                                        if (x[1] <= 2080.0) {
                                                            y_pred += 141.0;
                                                        }

                                                        else {
                                                            if (x[2] <= 2173.0) {
                                                                y_pred += 156.0;
